<?xml version="1.0"?>
<opencv_storage>
<cascade>
  <stageType>BOOST</stageType>
  <featureType>HAAR</featureType>
  <height>24</height>
  <width>24</width>
  <stageParams>
    <boostType>GAB</boostType>
    <minHitRate>9.9500000476837158e-01</minHitRate>
    <maxFalseAlarm>5.0000000000000000e-01</maxFalseAlarm>
    <weightTrimRate>9.4999998807907104e-01</weightTrimRate>
    <maxDepth>1</maxDepth>
    <maxWeakCount>100</maxWeakCount></stageParams>
  <featureParams>
    <maxCatCount>0</maxCatCount>
    <featSize>1</featSize>
    <mode>BASIC</mode></featureParams>
  <stageNum>7</stageNum>
  <stages>
    <!-- stage 0 -->
    <_>
      <maxWeakCount>1</maxWeakCount>
      <stageThreshold>1.</stageThreshold>
      <weakClassifiers>
        <_>
          <internalNodes>
            0 -1 0 5.0594918429851532e-02</internalNodes>
          <leafValues>
            -1. 1.</leafValues></_></weakClassifiers></_>
    <!-- stage 1 -->
    <_>
      <maxWeakCount>2</maxWeakCount>
      <stageThreshold>-4.9492162466049194e-01</stageThreshold>
      <weakClassifiers>
        <_>
          <internalNodes>
            0 -1 11 -1.2806406617164612e-01</internalNodes>
          <leafValues>
            8.3783781528472900e-01 -9.9689924716949463e-01</leafValues></_>
        <_>
          <internalNodes>
            0 -1 13 -1.4525037258863449e-03</internalNodes>
          <leafValues>
            5.0197762250900269e-01 -9.9638533592224121e-01</leafValues></_></weakClassifiers></_>
    <!-- stage 2 -->
    <_>
      <maxWeakCount>4</maxWeakCount>
      <stageThreshold>-1.9493312835693359e+00</stageThreshold>
      <weakClassifiers>
        <_>
          <internalNodes>
            0 -1 26 -1.4195725321769714e-01</internalNodes>
          <leafValues>
            7.2727274894714355e-01 -9.5151513814926147e-01</leafValues></_>
        <_>
          <internalNodes>
            0 -1 10 2.1119442582130432e-01</internalNodes>
          <leafValues>
            -8.5883831977844238e-01 4.5314517617225647e-01</leafValues></_>
        <_>
          <internalNodes>
            0 -1 1 1.1995276808738708e-01</internalNodes>
          <leafValues>
            -8.2273221015930176e-01 3.6808431148529053e-01</leafValues></_>
        <_>
          <internalNodes>
            0 -1 6 -4.5446045696735382e-02</internalNodes>
          <leafValues>
            8.7685000896453857e-01 -5.0706207752227783e-01</leafValues></_></weakClassifiers></_>
    <!-- stage 3 -->
    <_>
      <maxWeakCount>4</maxWeakCount>
      <stageThreshold>-1.6639539003372192e+00</stageThreshold>
      <weakClassifiers>
        <_>
          <internalNodes>
            0 -1 15 -7.7220641076564789e-02</internalNodes>
          <leafValues>
            4.0000000596046448e-01 -9.3655586242675781e-01</leafValues></_>
        <_>
          <internalNodes>
            0 -1 5 6.5003409981727600e-02</internalNodes>
          <leafValues>
            -7.7483892440795898e-01 6.6113942861557007e-01</leafValues></_>
        <_>
          <internalNodes>
            0 -1 25 -1.8044916942017153e-05</internalNodes>
          <leafValues>
            4.3459090590476990e-01 -7.1394044160842896e-01</leafValues></_>
        <_>
          <internalNodes>
            0 -1 8 -2.3032892495393753e-02</internalNodes>
          <leafValues>
            9.4727849960327148e-01 -3.8715007901191711e-01</leafValues></_></weakClassifiers></_>
    <!-- stage 4 -->
    <_>
      <maxWeakCount>6</maxWeakCount>
      <stageThreshold>-2.2591736316680908e+00</stageThreshold>
      <weakClassifiers>
        <_>
          <internalNodes>
            0 -1 4 -1.7446023225784302e-01</internalNodes>
          <leafValues>
            5.3846156597137451e-01 -9.2526155710220337e-01</leafValues></_>
        <_>
          <internalNodes>
            0 -1 24 4.0537277527619153e-05</internalNodes>
          <leafValues>
            -7.9069381952285767e-01 4.6507155895233154e-01</leafValues></_>
        <_>
          <internalNodes>
            0 -1 22 1.3068191037746146e-05</internalNodes>
          <leafValues>
            -5.5677855014801025e-01 4.9488964676856995e-01</leafValues></_>
        <_>
          <internalNodes>
            0 -1 7 6.5539464354515076e-02</internalNodes>
          <leafValues>
            -9.6569848060607910e-01 2.6845818758010864e-01</leafValues></_>
        <_>
          <internalNodes>
            0 -1 18 9.7331809229217470e-05</internalNodes>
          <leafValues>
            -5.8700674772262573e-01 4.8437613248825073e-01</leafValues></_>
        <_>
          <internalNodes>
            0 -1 12 -3.6267876625061035e-02</internalNodes>
          <leafValues>
            -1. 3.3210888504981995e-01</leafValues></_></weakClassifiers></_>
    <!-- stage 5 -->
    <_>
      <maxWeakCount>4</maxWeakCount>
      <stageThreshold>-1.9069874286651611e+00</stageThreshold>
      <weakClassifiers>
        <_>
          <internalNodes>
            0 -1 2 1.5089106559753418e-01</internalNodes>
          <leafValues>
            -9.2537313699722290e-01 6.6666668653488159e-01</leafValues></_>
        <_>
          <internalNodes>
            0 -1 17 -1.3731460785493255e-04</internalNodes>
          <leafValues>
            1.8354503810405731e-01 -8.2217365503311157e-01</leafValues></_>
        <_>
          <internalNodes>
            0 -1 21 -3.9204573113238439e-05</internalNodes>
          <leafValues>
            5.3840792179107666e-01 -6.2028068304061890e-01</leafValues></_>
        <_>
          <internalNodes>
            0 -1 3 -3.7403637543320656e-03</internalNodes>
          <leafValues>
            5.1432740688323975e-01 -5.4487866163253784e-01</leafValues></_></weakClassifiers></_>
    <!-- stage 6 -->
    <_>
      <maxWeakCount>6</maxWeakCount>
      <stageThreshold>-1.9028817415237427e+00</stageThreshold>
      <weakClassifiers>
        <_>
          <internalNodes>
            0 -1 9 -1.8474858999252319e-01</internalNodes>
          <leafValues>
            3.2258063554763794e-02 -9.4162827730178833e-01</leafValues></_>
        <_>
          <internalNodes>
            0 -1 23 -1.7849719524383545e-01</internalNodes>
          <leafValues>
            3.2874190807342529e-01 -7.8452861309051514e-01</leafValues></_>
        <_>
          <internalNodes>
            0 -1 20 7.2401642682962120e-05</internalNodes>
          <leafValues>
            -5.3659194707870483e-01 4.6516114473342896e-01</leafValues></_>
        <_>
          <internalNodes>
            0 -1 14 -6.0555962845683098e-03</internalNodes>
          <leafValues>
            4.9418804049491882e-01 -5.2192801237106323e-01</leafValues></_>
        <_>
          <internalNodes>
            0 -1 16 -1.4622191665694118e-03</internalNodes>
          <leafValues>
            3.3218330144882202e-01 -7.2065186500549316e-01</leafValues></_>
        <_>
          <internalNodes>
            0 -1 19 -3.4738287329673767e-02</internalNodes>
          <leafValues>
            5.8633089065551758e-01 -4.2087993025779724e-01</leafValues></_></weakClassifiers></_></stages>
  <features>
    <_>
      <rects>
        <_>
          0 0 13 18 -1.</_>
        <_>
          0 9 13 9 2.</_></rects>
      <tilted>0</tilted></_>
    <_>
      <rects>
        <_>
          0 7 16 9 -1.</_>
        <_>
          8 7 8 9 2.</_></rects>
      <tilted>0</tilted></_>
    <_>
      <rects>
        <_>
          0 8 8 11 -1.</_>
        <_>
          4 8 4 11 2.</_></rects>
      <tilted>0</tilted></_>
    <_>
      <rects>
        <_>
          0 11 16 3 -1.</_>
        <_>
          0 12 16 1 3.</_></rects>
      <tilted>0</tilted></_>
    <_>
      <rects>
        <_>
          2 7 20 12 -1.</_>
        <_>
          2 7 10 6 2.</_>
        <_>
          12 13 10 6 2.</_></rects>
      <tilted>0</tilted></_>
    <_>
      <rects>
        <_>
          3 1 6 14 -1.</_>
        <_>
          3 1 3 7 2.</_>
        <_>
          6 8 3 7 2.</_></rects>
      <tilted>0</tilted></_>
    <_>
      <rects>
        <_>
          3 11 18 1 -1.</_>
        <_>
          12 11 9 1 2.</_></rects>
      <tilted>0</tilted></_>
    <_>
      <rects>
        <_>
          4 4 8 10 -1.</_>
        <_>
          4 9 8 5 2.</_></rects>
      <tilted>0</tilted></_>
    <_>
      <rects>
        <_>
          4 7 6 6 -1.</_>
        <_>
          4 7 3 3 2.</_>
        <_>
          7 10 3 3 2.</_></rects>
      <tilted>0</tilted></_>
    <_>
      <rects>
        <_>
          4 14 12 10 -1.</_>
        <_>
          4 19 12 5 2.</_></rects>
      <tilted>0</tilted></_>
    <_>
      <rects>
        <_>
          6 0 8 16 -1.</_>
        <_>
          6 8 8 8 2.</_></rects>
      <tilted>0</tilted></_>
    <_>
      <rects>
        <_>
          6 9 11 14 -1.</_>
        <_>
          6 16 11 7 2.</_></rects>
      <tilted>0</tilted></_>
    <_>
      <rects>
        <_>
          7 12 10 4 -1.</_>
        <_>
          12 12 5 4 2.</_></rects>
      <tilted>0</tilted></_>
    <_>
      <rects>
        <_>
          7 14 5 6 -1.</_>
        <_>
          7 17 5 3 2.</_></rects>
      <tilted>0</tilted></_>
    <_>
      <rects>
        <_>
          8 9 4 5 -1.</_>
        <_>
          10 9 2 5 2.</_></rects>
      <tilted>0</tilted></_>
    <_>
      <rects>
        <_>
          8 10 12 10 -1.</_>
        <_>
          8 10 6 5 2.</_>
        <_>
          14 15 6 5 2.</_></rects>
      <tilted>0</tilted></_>
    <_>
      <rects>
        <_>
          8 14 12 1 -1.</_>
        <_>
          14 14 6 1 2.</_></rects>
      <tilted>0</tilted></_>
    <_>
      <rects>
        <_>
          9 11 2 3 -1.</_>
        <_>
          10 11 1 3 2.</_></rects>
      <tilted>0</tilted></_>
    <_>
      <rects>
        <_>
          9 12 3 2 -1.</_>
        <_>
          9 13 3 1 2.</_></rects>
      <tilted>0</tilted></_>
    <_>
      <rects>
        <_>
          10 5 9 11 -1.</_>
        <_>
          13 5 3 11 3.</_></rects>
      <tilted>0</tilted></_>
    <_>
      <rects>
        <_>
          10 8 2 3 -1.</_>
        <_>
          11 8 1 3 2.</_></rects>
      <tilted>0</tilted></_>
    <_>
      <rects>
        <_>
          10 15 2 6 -1.</_>
        <_>
          10 15 1 3 2.</_>
        <_>
          11 18 1 3 2.</_></rects>
      <tilted>0</tilted></_>
    <_>
      <rects>
        <_>
          11 11 2 2 -1.</_>
        <_>
          11 11 1 1 2.</_>
        <_>
          12 12 1 1 2.</_></rects>
      <tilted>0</tilted></_>
    <_>
      <rects>
        <_>
          12 6 12 13 -1.</_>
        <_>
          18 6 6 13 2.</_></rects>
      <tilted>0</tilted></_>
    <_>
      <rects>
        <_>
          12 13 4 2 -1.</_>
        <_>
          14 13 2 2 2.</_></rects>
      <tilted>0</tilted></_>
    <_>
      <rects>
        <_>
          12 14 6 3 -1.</_>
        <_>
          14 14 2 3 3.</_></rects>
      <tilted>0</tilted></_>
    <_>
      <rects>
        <_>
          14 6 10 13 -1.</_>
        <_>
          19 6 5 13 2.</_></rects>
      <tilted>0</tilted></_></features></cascade>
</opencv_storage>
